<?xml version="1.0"?>
<opencv_storage>
<cascade>
  <stageType>BOOST</stageType>
  <featureType>HAAR</featureType>
  <height>20</height>
  <width>20</width>
  <stageParams>
    <boostType>GAB</boostType>
    <minHitRate>9.9500000476837158e-01</minHitRate>
    <maxFalseAlarm>5.0000000000000000e-01</maxFalseAlarm>
    <weightTrimRate>9.4999999999999996e-01</weightTrimRate>
    <maxDepth>1</maxDepth>
    <maxWeakCount>100</maxWeakCount></stageParams>
  <featureParams>
    <maxCatCount>0</maxCatCount>
    <featSize>1</featSize>
    <mode>BASIC</mode></featureParams>
  <stageNum>12</stageNum>
  <stages>
    <!-- stage 0 -->
    <_>
      <maxWeakCount>3</maxWeakCount>
      <stageThreshold>-9.3063944578170776e-01</stageThreshold>
      <weakClassifiers>
        <_>
          <internalNodes>
            0 -1 15 7.1299701929092407e-02</internalNodes>
          <leafValues>
            -9.2296916246414185e-01 9.5754718780517578e-01</leafValues></_>
        <_>
          <internalNodes>
            0 -1 26 5.6946218013763428e-02</internalNodes>
          <leafValues>
            -8.5180151462554932e-01 9.3378072977066040e-01</leafValues></_>
        <_>
          <internalNodes>
            0 -1 18 2.1798051893711090e-02</internalNodes>
          <leafValues>
            -8.3758676052093506e-01 8.4413129091262817e-01</leafValues></_></weakClassifiers></_>
    <!-- stage 1 -->
    <_>
      <maxWeakCount>3</maxWeakCount>
      <stageThreshold>-9.8090690374374390e-01</stageThreshold>
      <weakClassifiers>
        <_>
          <internalNodes>
            0 -1 31 7.1555003523826599e-02</internalNodes>
          <leafValues>
            -8.8787668943405151e-01 9.1673213243484497e-01</leafValues></_>
        <_>
          <internalNodes>
            0 -1 1 2.4545472115278244e-02</internalNodes>
          <leafValues>
            -8.1704634428024292e-01 8.4956938028335571e-01</leafValues></_>
        <_>
          <internalNodes>
            0 -1 37 4.3379161506891251e-03</internalNodes>
          <leafValues>
            -9.2642855644226074e-01 7.2401612997055054e-01</leafValues></_></weakClassifiers></_>
    <!-- stage 2 -->
    <_>
      <maxWeakCount>3</maxWeakCount>
      <stageThreshold>-9.0886986255645752e-01</stageThreshold>
      <weakClassifiers>
        <_>
          <internalNodes>
            0 -1 7 -5.9784613549709320e-02</internalNodes>
          <leafValues>
            8.9930284023284912e-01 -8.9496093988418579e-01</leafValues></_>
        <_>
          <internalNodes>
            0 -1 27 3.3650025725364685e-02</internalNodes>
          <leafValues>
            -8.4525448083877563e-01 8.4000933170318604e-01</leafValues></_>
        <_>
          <internalNodes>
            0 -1 20 1.4156326651573181e-02</internalNodes>
          <leafValues>
            -7.3453503847122192e-01 8.3134555816650391e-01</leafValues></_></weakClassifiers></_>
    <!-- stage 3 -->
    <_>
      <maxWeakCount>3</maxWeakCount>
      <stageThreshold>-9.9888032674789429e-01</stageThreshold>
      <weakClassifiers>
        <_>
          <internalNodes>
            0 -1 24 2.9456123709678650e-02</internalNodes>
          <leafValues>
            -8.5061639547348022e-01 8.1226342916488647e-01</leafValues></_>
        <_>
          <internalNodes>
            0 -1 35 1.8170224502682686e-02</internalNodes>
          <leafValues>
            -8.0113005638122559e-01 7.9673928022384644e-01</leafValues></_>
        <_>
          <internalNodes>
            0 -1 4 6.4784064888954163e-03</internalNodes>
          <leafValues>
            -8.9092642068862915e-01 6.5286612510681152e-01</leafValues></_></weakClassifiers></_>
    <!-- stage 4 -->
    <_>
      <maxWeakCount>3</maxWeakCount>
      <stageThreshold>-8.8659417629241943e-01</stageThreshold>
      <weakClassifiers>
        <_>
          <internalNodes>
            0 -1 5 -7.7154248952865601e-02</internalNodes>
          <leafValues>
            8.2525813579559326e-01 -7.9042333364486694e-01</leafValues></_>
        <_>
          <internalNodes>
            0 -1 10 2.3410310968756676e-02</internalNodes>
          <leafValues>
            -7.4456310272216797e-01 8.4150224924087524e-01</leafValues></_>
        <_>
          <internalNodes>
            0 -1 6 7.9816356301307678e-03</internalNodes>
          <leafValues>
            -8.8593834638595581e-01 6.4839226007461548e-01</leafValues></_></weakClassifiers></_>
    <!-- stage 5 -->
    <_>
      <maxWeakCount>3</maxWeakCount>
      <stageThreshold>-9.4260215759277344e-01</stageThreshold>
      <weakClassifiers>
        <_>
          <internalNodes>
            0 -1 21 -3.6936547607183456e-02</internalNodes>
          <leafValues>
            7.8244560956954956e-01 -8.3613753318786621e-01</leafValues></_>
        <_>
          <internalNodes>
            0 -1 30 -5.1142223179340363e-02</internalNodes>
          <leafValues>
            7.5400614738464355e-01 -7.7708590030670166e-01</leafValues></_>
        <_>
          <internalNodes>
            0 -1 0 2.4002950638532639e-02</internalNodes>
          <leafValues>
            -8.0937993526458740e-01 6.7062121629714966e-01</leafValues></_></weakClassifiers></_>
    <!-- stage 6 -->
    <_>
      <maxWeakCount>4</maxWeakCount>
      <stageThreshold>-1.7262920141220093e+00</stageThreshold>
      <weakClassifiers>
        <_>
          <internalNodes>
            0 -1 12 6.5534427762031555e-02</internalNodes>
          <leafValues>
            -7.9653680324554443e-01 7.6407915353775024e-01</leafValues></_>
        <_>
          <internalNodes>
            0 -1 22 9.8626732826232910e-02</internalNodes>
          <leafValues>
            -7.9152625799179077e-01 7.5993096828460693e-01</leafValues></_>
        <_>
          <internalNodes>
            0 -1 16 6.4524546265602112e-02</internalNodes>
          <leafValues>
            -6.8389564752578735e-01 7.5708705186843872e-01</leafValues></_>
        <_>
          <internalNodes>
            0 -1 34 -1.4368562260642648e-03</internalNodes>
          <leafValues>
            5.4566669464111328e-01 -9.5029240846633911e-01</leafValues></_></weakClassifiers></_>
    <!-- stage 7 -->
    <_>
      <maxWeakCount>4</maxWeakCount>
      <stageThreshold>-1.6269121170043945e+00</stageThreshold>
      <weakClassifiers>
        <_>
          <internalNodes>
            0 -1 14 8.6440771818161011e-02</internalNodes>
          <leafValues>
            -8.3040934801101685e-01 7.7777779102325439e-01</leafValues></_>
        <_>
          <internalNodes>
            0 -1 9 -2.4643905460834503e-02</internalNodes>
          <leafValues>
            7.8874605894088745e-01 -7.2099924087524414e-01</leafValues></_>
        <_>
          <internalNodes>
            0 -1 38 2.0767502486705780e-02</internalNodes>
          <leafValues>
            -6.3646078109741211e-01 8.2508081197738647e-01</leafValues></_>
        <_>
          <internalNodes>
            0 -1 11 -1.7156961839646101e-03</internalNodes>
          <leafValues>
            5.6095719337463379e-01 -9.7268706560134888e-01</leafValues></_></weakClassifiers></_>
    <!-- stage 8 -->
    <_>
      <maxWeakCount>3</maxWeakCount>
      <stageThreshold>-9.1178864240646362e-01</stageThreshold>
      <weakClassifiers>
        <_>
          <internalNodes>
            0 -1 28 3.6573119461536407e-02</internalNodes>
          <leafValues>
            -8.1561338901519775e-01 7.3579335212707520e-01</leafValues></_>
        <_>
          <internalNodes>
            0 -1 3 6.2849044799804688e-02</internalNodes>
          <leafValues>
            -6.9194781780242920e-01 7.6905757188796997e-01</leafValues></_>
        <_>
          <internalNodes>
            0 -1 8 1.3055250048637390e-02</internalNodes>
          <leafValues>
            -8.2067525386810303e-01 5.9577262401580811e-01</leafValues></_></weakClassifiers></_>
    <!-- stage 9 -->
    <_>
      <maxWeakCount>5</maxWeakCount>
      <stageThreshold>-1.0728003978729248e+00</stageThreshold>
      <weakClassifiers>
        <_>
          <internalNodes>
            0 -1 29 3.7835571914911270e-02</internalNodes>
          <leafValues>
            -8.7086361646652222e-01 6.7008900642395020e-01</leafValues></_>
        <_>
          <internalNodes>
            0 -1 13 4.2568244040012360e-02</internalNodes>
          <leafValues>
            -6.6822725534439087e-01 8.3037078380584717e-01</leafValues></_>
        <_>
          <internalNodes>
            0 -1 17 8.0473810434341431e-02</internalNodes>
          <leafValues>
            -7.9188168048858643e-01 6.6556584835052490e-01</leafValues></_>
        <_>
          <internalNodes>
            0 -1 25 1.6088791191577911e-02</internalNodes>
          <leafValues>
            -7.3032391071319580e-01 7.0949405431747437e-01</leafValues></_>
        <_>
          <internalNodes>
            0 -1 33 4.4335136190056801e-03</internalNodes>
          <leafValues>
            -9.2055678367614746e-01 5.3104847669601440e-01</leafValues></_></weakClassifiers></_>
    <!-- stage 10 -->
    <_>
      <maxWeakCount>3</maxWeakCount>
      <stageThreshold>-8.1156045198440552e-01</stageThreshold>
      <weakClassifiers>
        <_>
          <internalNodes>
            0 -1 23 -1.1903706006705761e-02</internalNodes>
          <leafValues>
            7.6747840642929077e-01 -7.5473022460937500e-01</leafValues></_>
        <_>
          <internalNodes>
            0 -1 39 2.2846195846796036e-02</internalNodes>
          <leafValues>
            -6.6400992870330811e-01 7.9570406675338745e-01</leafValues></_>
        <_>
          <internalNodes>
            0 -1 32 9.2045888304710388e-03</internalNodes>
          <leafValues>
            -8.0318367481231689e-01 6.0717970132827759e-01</leafValues></_></weakClassifiers></_>
    <!-- stage 11 -->
    <_>
      <maxWeakCount>3</maxWeakCount>
      <stageThreshold>-1.0452047586441040e+00</stageThreshold>
      <weakClassifiers>
        <_>
          <internalNodes>
            0 -1 2 3.2365936785936356e-02</internalNodes>
          <leafValues>
            -7.7361214160919189e-01 7.4105101823806763e-01</leafValues></_>
        <_>
          <internalNodes>
            0 -1 36 -3.2682947814464569e-02</internalNodes>
          <leafValues>
            6.7262834310531616e-01 -8.1655162572860718e-01</leafValues></_>
        <_>
          <internalNodes>
            0 -1 19 9.5201432704925537e-03</internalNodes>
          <leafValues>
            -8.7941443920135498e-01 5.4495900869369507e-01</leafValues></_></weakClassifiers></_></stages>
  <features>
    <_>
      <rects>
        <_>
          0 1 2 18 -1.</_>
        <_>
          1 1 1 18 2.</_></rects>
      <tilted>0</tilted></_>
    <_>
      <rects>
        <_>
          0 1 2 19 -1.</_>
        <_>
          1 1 1 19 2.</_></rects>
      <tilted>0</tilted></_>
    <_>
      <rects>
        <_>
          0 2 2 17 -1.</_>
        <_>
          1 2 1 17 2.</_></rects>
      <tilted>0</tilted></_>
    <_>
      <rects>
        <_>
          1 3 10 6 -1.</_>
        <_>
          1 3 5 3 2.</_>
        <_>
          6 6 5 3 2.</_></rects>
      <tilted>0</tilted></_>
    <_>
      <rects>
        <_>
          1 15 4 4 -1.</_>
        <_>
          1 15 2 2 2.</_>
        <_>
          3 17 2 2 2.</_></rects>
      <tilted>0</tilted></_>
    <_>
      <rects>
        <_>
          1 16 18 2 -1.</_>
        <_>
          7 16 6 2 3.</_></rects>
      <tilted>0</tilted></_>
    <_>
      <rects>
        <_>
          2 0 2 6 -1.</_>
        <_>
          2 2 2 2 3.</_></rects>
      <tilted>0</tilted></_>
    <_>
      <rects>
        <_>
          2 9 6 10 -1.</_>
        <_>
          2 9 3 5 2.</_>
        <_>
          5 14 3 5 2.</_></rects>
      <tilted>0</tilted></_>
    <_>
      <rects>
        <_>
          2 12 2 6 -1.</_>
        <_>
          2 15 2 3 2.</_></rects>
      <tilted>0</tilted></_>
    <_>
      <rects>
        <_>
          2 13 6 4 -1.</_>
        <_>
          2 13 3 2 2.</_>
        <_>
          5 15 3 2 2.</_></rects>
      <tilted>0</tilted></_>
    <_>
      <rects>
        <_>
          3 0 14 3 -1.</_>
        <_>
          3 1 14 1 3.</_></rects>
      <tilted>0</tilted></_>
    <_>
      <rects>
        <_>
          3 2 3 2 -1.</_>
        <_>
          3 3 3 1 2.</_></rects>
      <tilted>0</tilted></_>
    <_>
      <rects>
        <_>
          3 15 14 4 -1.</_>
        <_>
          3 17 14 2 2.</_></rects>
      <tilted>0</tilted></_>
    <_>
      <rects>
        <_>
          3 17 15 3 -1.</_>
        <_>
          3 18 15 1 3.</_></rects>
      <tilted>0</tilted></_>
    <_>
      <rects>
        <_>
          4 7 6 7 -1.</_>
        <_>
          6 7 2 7 3.</_></rects>
      <tilted>0</tilted></_>
    <_>
      <rects>
        <_>
          4 7 6 8 -1.</_>
        <_>
          6 7 2 8 3.</_></rects>
      <tilted>0</tilted></_>
    <_>
      <rects>
        <_>
          4 8 6 5 -1.</_>
        <_>
          6 8 2 5 3.</_></rects>
      <tilted>0</tilted></_>
    <_>
      <rects>
        <_>
          4 8 6 7 -1.</_>
        <_>
          6 8 2 7 3.</_></rects>
      <tilted>0</tilted></_>
    <_>
      <rects>
        <_>
          4 17 12 3 -1.</_>
        <_>
          4 18 12 1 3.</_></rects>
      <tilted>0</tilted></_>
    <_>
      <rects>
        <_>
          5 9 3 3 -1.</_>
        <_>
          6 9 1 3 3.</_></rects>
      <tilted>0</tilted></_>
    <_>
      <rects>
        <_>
          5 10 3 4 -1.</_>
        <_>
          6 10 1 4 3.</_></rects>
      <tilted>0</tilted></_>
    <_>
      <rects>
        <_>
          6 4 4 10 -1.</_>
        <_>
          6 4 2 5 2.</_>
        <_>
          8 9 2 5 2.</_></rects>
      <tilted>0</tilted></_>
    <_>
      <rects>
        <_>
          6 5 10 6 -1.</_>
        <_>
          6 7 10 2 3.</_></rects>
      <tilted>0</tilted></_>
    <_>
      <rects>
        <_>
          6 13 1 6 -1.</_>
        <_>
          6 15 1 2 3.</_></rects>
      <tilted>0</tilted></_>
    <_>
      <rects>
        <_>
          7 5 3 6 -1.</_>
        <_>
          7 7 3 2 3.</_></rects>
      <tilted>0</tilted></_>
    <_>
      <rects>
        <_>
          7 6 5 3 -1.</_>
        <_>
          7 7 5 1 3.</_></rects>
      <tilted>0</tilted></_>
    <_>
      <rects>
        <_>
          8 5 8 6 -1.</_>
        <_>
          8 7 8 2 3.</_></rects>
      <tilted>0</tilted></_>
    <_>
      <rects>
        <_>
          10 5 6 5 -1.</_>
        <_>
          12 5 2 5 3.</_></rects>
      <tilted>0</tilted></_>
    <_>
      <rects>
        <_>
          11 15 8 3 -1.</_>
        <_>
          15 15 4 3 2.</_></rects>
      <tilted>0</tilted></_>
    <_>
      <rects>
        <_>
          12 0 1 15 -1.</_>
        <_>
          12 5 1 5 3.</_></rects>
      <tilted>0</tilted></_>
    <_>
      <rects>
        <_>
          12 2 6 8 -1.</_>
        <_>
          12 2 3 4 2.</_>
        <_>
          15 6 3 4 2.</_></rects>
      <tilted>0</tilted></_>
    <_>
      <rects>
        <_>
          12 6 6 12 -1.</_>
        <_>
          12 6 3 6 2.</_>
        <_>
          15 12 3 6 2.</_></rects>
      <tilted>0</tilted></_>
    <_>
      <rects>
        <_>
          14 5 1 6 -1.</_>
        <_>
          14 7 1 2 3.</_></rects>
      <tilted>0</tilted></_>
    <_>
      <rects>
        <_>
          14 16 4 2 -1.</_>
        <_>
          16 16 2 2 2.</_></rects>
      <tilted>0</tilted></_>
    <_>
      <rects>
        <_>
          15 2 2 2 -1.</_>
        <_>
          15 3 2 1 2.</_></rects>
      <tilted>0</tilted></_>
    <_>
      <rects>
        <_>
          15 13 2 6 -1.</_>
        <_>
          15 16 2 3 2.</_></rects>
      <tilted>0</tilted></_>
    <_>
      <rects>
        <_>
          16 1 3 10 -1.</_>
        <_>
          16 6 3 5 2.</_></rects>
      <tilted>0</tilted></_>
    <_>
      <rects>
        <_>
          17 0 1 6 -1.</_>
        <_>
          17 2 1 2 3.</_></rects>
      <tilted>0</tilted></_>
    <_>
      <rects>
        <_>
          17 4 3 12 -1.</_>
        <_>
          18 4 1 12 3.</_></rects>
      <tilted>0</tilted></_>
    <_>
      <rects>
        <_>
          17 4 3 13 -1.</_>
        <_>
          18 4 1 13 3.</_></rects>
      <tilted>0</tilted></_></features></cascade>
</opencv_storage>
