<?xml version="1.0"?>
<opencv_storage>
<stage9>
  <maxWeakCount>5</maxWeakCount>
  <stageThreshold>-1.0728003978729248e+00</stageThreshold>
  <weakClassifiers>
    <_>
      <internalNodes>
        0 -1 65765 3.7835571914911270e-02</internalNodes>
      <leafValues>
        -8.7086361646652222e-01 6.7008900642395020e-01</leafValues></_>
    <_>
      <internalNodes>
        0 -1 27983 4.2568244040012360e-02</internalNodes>
      <leafValues>
        -6.6822725534439087e-01 8.3037078380584717e-01</leafValues></_>
    <_>
      <internalNodes>
        0 -1 32029 8.0473810434341431e-02</internalNodes>
      <leafValues>
        -7.9188168048858643e-01 6.6556584835052490e-01</leafValues></_>
    <_>
      <internalNodes>
        0 -1 47781 1.6088791191577911e-02</internalNodes>
      <leafValues>
        -7.3032391071319580e-01 7.0949405431747437e-01</leafValues></_>
    <_>
      <internalNodes>
        0 -1 73445 4.4335136190056801e-03</internalNodes>
      <leafValues>
        -9.2055678367614746e-01 5.3104847669601440e-01</leafValues></_></weakClassifiers></stage9>
</opencv_storage>
