<?xml version="1.0"?>
<opencv_storage>
<cascade>
  <stageType>BOOST</stageType>
  <featureType>HAAR</featureType>
  <height>20</height>
  <width>20</width>
  <stageParams>
    <boostType>GAB</boostType>
    <minHitRate>9.9500000476837158e-01</minHitRate>
    <maxFalseAlarm>5.0000000000000000e-01</maxFalseAlarm>
    <weightTrimRate>9.4999999999999996e-01</weightTrimRate>
    <maxDepth>1</maxDepth>
    <maxWeakCount>100</maxWeakCount></stageParams>
  <featureParams>
    <maxCatCount>0</maxCatCount>
    <featSize>1</featSize>
    <mode>BASIC</mode></featureParams>
  <stageNum>11</stageNum>
  <stages>
    <!-- stage 0 -->
    <_>
      <maxWeakCount>2</maxWeakCount>
      <stageThreshold>-7.0435687899589539e-02</stageThreshold>
      <weakClassifiers>
        <_>
          <internalNodes>
            0 -1 12 5.2633304148912430e-02</internalNodes>
          <leafValues>
            -9.7126436233520508e-01 9.5035463571548462e-01</leafValues></_>
        <_>
          <internalNodes>
            0 -1 10 3.2615553587675095e-02</internalNodes>
          <leafValues>
            -9.5300871133804321e-01 9.0082865953445435e-01</leafValues></_></weakClassifiers></_>
    <!-- stage 1 -->
    <_>
      <maxWeakCount>3</maxWeakCount>
      <stageThreshold>-9.1369259357452393e-01</stageThreshold>
      <weakClassifiers>
        <_>
          <internalNodes>
            0 -1 20 4.0315486490726471e-02</internalNodes>
          <leafValues>
            -9.6491229534149170e-01 9.0277779102325439e-01</leafValues></_>
        <_>
          <internalNodes>
            0 -1 6 -6.7014046013355255e-02</internalNodes>
          <leafValues>
            9.1127693653106689e-01 -8.5896074771881104e-01</leafValues></_>
        <_>
          <internalNodes>
            0 -1 1 1.6175370663404465e-02</internalNodes>
          <leafValues>
            -8.6144065856933594e-01 9.1018038988113403e-01</leafValues></_></weakClassifiers></_>
    <!-- stage 2 -->
    <_>
      <maxWeakCount>3</maxWeakCount>
      <stageThreshold>-9.6721166372299194e-01</stageThreshold>
      <weakClassifiers>
        <_>
          <internalNodes>
            0 -1 24 4.8209588974714279e-02</internalNodes>
          <leafValues>
            -9.5795798301696777e-01 8.3838385343551636e-01</leafValues></_>
        <_>
          <internalNodes>
            0 -1 17 1.1624980717897415e-02</internalNodes>
          <leafValues>
            -8.5675293207168579e-01 8.9917802810668945e-01</leafValues></_>
        <_>
          <internalNodes>
            0 -1 7 -5.1306858658790588e-02</internalNodes>
          <leafValues>
            8.7028712034225464e-01 -9.0843170881271362e-01</leafValues></_></weakClassifiers></_>
    <!-- stage 3 -->
    <_>
      <maxWeakCount>2</maxWeakCount>
      <stageThreshold>-1.6244700551033020e-01</stageThreshold>
      <weakClassifiers>
        <_>
          <internalNodes>
            0 -1 13 5.1881324499845505e-02</internalNodes>
          <leafValues>
            -9.1715973615646362e-01 8.2191783189773560e-01</leafValues></_>
        <_>
          <internalNodes>
            0 -1 11 2.7528654783964157e-02</internalNodes>
          <leafValues>
            -9.1029334068298340e-01 7.5471276044845581e-01</leafValues></_></weakClassifiers></_>
    <!-- stage 4 -->
    <_>
      <maxWeakCount>3</maxWeakCount>
      <stageThreshold>-9.6698170900344849e-01</stageThreshold>
      <weakClassifiers>
        <_>
          <internalNodes>
            0 -1 19 -5.6996032595634460e-02</internalNodes>
          <leafValues>
            8.7832701206207275e-01 -8.2016348838806152e-01</leafValues></_>
        <_>
          <internalNodes>
            0 -1 22 2.5670439004898071e-02</internalNodes>
          <leafValues>
            -8.4582483768463135e-01 7.6535123586654663e-01</leafValues></_>
        <_>
          <internalNodes>
            0 -1 3 -2.4218846112489700e-02</internalNodes>
          <leafValues>
            6.9900661706924438e-01 -9.0891361236572266e-01</leafValues></_></weakClassifiers></_>
    <!-- stage 5 -->
    <_>
      <maxWeakCount>3</maxWeakCount>
      <stageThreshold>-1.1167216300964355e+00</stageThreshold>
      <weakClassifiers>
        <_>
          <internalNodes>
            0 -1 4 -4.9707420170307159e-02</internalNodes>
          <leafValues>
            7.5333333015441895e-01 -8.9696967601776123e-01</leafValues></_>
        <_>
          <internalNodes>
            0 -1 16 -6.0982212424278259e-02</internalNodes>
          <leafValues>
            7.5064814090728760e-01 -8.4050142765045166e-01</leafValues></_>
        <_>
          <internalNodes>
            0 -1 8 9.4465315341949463e-03</internalNodes>
          <leafValues>
            -9.9555402994155884e-01 6.2074953317642212e-01</leafValues></_></weakClassifiers></_>
    <!-- stage 6 -->
    <_>
      <maxWeakCount>2</maxWeakCount>
      <stageThreshold>-1.4158658683300018e-01</stageThreshold>
      <weakClassifiers>
        <_>
          <internalNodes>
            0 -1 25 -1.5860535204410553e-02</internalNodes>
          <leafValues>
            7.1608835458755493e-01 -9.3916350603103638e-01</leafValues></_>
        <_>
          <internalNodes>
            0 -1 5 2.2946247830986977e-02</internalNodes>
          <leafValues>
            -8.1314945220947266e-01 7.9757690429687500e-01</leafValues></_></weakClassifiers></_>
    <!-- stage 7 -->
    <_>
      <maxWeakCount>3</maxWeakCount>
      <stageThreshold>-9.3349158763885498e-01</stageThreshold>
      <weakClassifiers>
        <_>
          <internalNodes>
            0 -1 21 -6.0022063553333282e-02</internalNodes>
          <leafValues>
            8.6666667461395264e-01 -8.1935483217239380e-01</leafValues></_>
        <_>
          <internalNodes>
            0 -1 15 1.1073330417275429e-02</internalNodes>
          <leafValues>
            -7.8937029838562012e-01 8.2771319150924683e-01</leafValues></_>
        <_>
          <internalNodes>
            0 -1 27 8.8476026430726051e-03</internalNodes>
          <leafValues>
            -9.5596557855606079e-01 6.7523354291915894e-01</leafValues></_></weakClassifiers></_>
    <!-- stage 8 -->
    <_>
      <maxWeakCount>3</maxWeakCount>
      <stageThreshold>-9.0396118164062500e-01</stageThreshold>
      <weakClassifiers>
        <_>
          <internalNodes>
            0 -1 9 9.1765478253364563e-02</internalNodes>
          <leafValues>
            -8.4313726425170898e-01 8.6861312389373779e-01</leafValues></_>
        <_>
          <internalNodes>
            0 -1 2 -3.5463042557239532e-02</internalNodes>
          <leafValues>
            8.1890803575515747e-01 -8.0461633205413818e-01</leafValues></_>
        <_>
          <internalNodes>
            0 -1 18 1.4087405055761337e-02</internalNodes>
          <leafValues>
            -7.9198342561721802e-01 7.4379241466522217e-01</leafValues></_></weakClassifiers></_>
    <!-- stage 9 -->
    <_>
      <maxWeakCount>2</maxWeakCount>
      <stageThreshold>-2.3343977332115173e-01</stageThreshold>
      <weakClassifiers>
        <_>
          <internalNodes>
            0 -1 0 2.5695253163576126e-02</internalNodes>
          <leafValues>
            -8.4300339221954346e-01 7.9094076156616211e-01</leafValues></_>
        <_>
          <internalNodes>
            0 -1 23 5.1129488274455070e-03</internalNodes>
          <leafValues>
            -9.5019257068634033e-01 6.0956364870071411e-01</leafValues></_></weakClassifiers></_>
    <!-- stage 10 -->
    <_>
      <maxWeakCount>2</maxWeakCount>
      <stageThreshold>-1.8007558584213257e-01</stageThreshold>
      <weakClassifiers>
        <_>
          <internalNodes>
            0 -1 14 3.7319645285606384e-02</internalNodes>
          <leafValues>
            -7.8947371244430542e-01 7.9710143804550171e-01</leafValues></_>
        <_>
          <internalNodes>
            0 -1 26 9.4874761998653412e-03</internalNodes>
          <leafValues>
            -9.7490531206130981e-01 6.0939806699752808e-01</leafValues></_></weakClassifiers></_></stages>
  <features>
    <_>
      <rects>
        <_>
          0 4 3 11 -1.</_>
        <_>
          1 4 1 11 3.</_></rects>
      <tilted>0</tilted></_>
    <_>
      <rects>
        <_>
          0 11 3 8 -1.</_>
        <_>
          1 11 1 8 3.</_></rects>
      <tilted>0</tilted></_>
    <_>
      <rects>
        <_>
          0 16 18 1 -1.</_>
        <_>
          6 16 6 1 3.</_></rects>
      <tilted>0</tilted></_>
    <_>
      <rects>
        <_>
          1 2 4 8 -1.</_>
        <_>
          1 6 4 4 2.</_></rects>
      <tilted>0</tilted></_>
    <_>
      <rects>
        <_>
          1 3 4 13 -1.</_>
        <_>
          3 3 2 13 2.</_></rects>
      <tilted>0</tilted></_>
    <_>
      <rects>
        <_>
          2 0 15 2 -1.</_>
        <_>
          2 1 15 1 2.</_></rects>
      <tilted>0</tilted></_>
    <_>
      <rects>
        <_>
          2 6 6 12 -1.</_>
        <_>
          2 6 3 6 2.</_>
        <_>
          5 12 3 6 2.</_></rects>
      <tilted>0</tilted></_>
    <_>
      <rects>
        <_>
          2 7 6 12 -1.</_>
        <_>
          2 7 3 6 2.</_>
        <_>
          5 13 3 6 2.</_></rects>
      <tilted>0</tilted></_>
    <_>
      <rects>
        <_>
          3 14 3 4 -1.</_>
        <_>
          3 16 3 2 2.</_></rects>
      <tilted>0</tilted></_>
    <_>
      <rects>
        <_>
          4 5 9 6 -1.</_>
        <_>
          4 7 9 2 3.</_></rects>
      <tilted>0</tilted></_>
    <_>
      <rects>
        <_>
          4 15 12 4 -1.</_>
        <_>
          4 17 12 2 2.</_></rects>
      <tilted>0</tilted></_>
    <_>
      <rects>
        <_>
          4 17 11 3 -1.</_>
        <_>
          4 18 11 1 3.</_></rects>
      <tilted>0</tilted></_>
    <_>
      <rects>
        <_>
          5 5 8 6 -1.</_>
        <_>
          5 7 8 2 3.</_></rects>
      <tilted>0</tilted></_>
    <_>
      <rects>
        <_>
          6 2 2 12 -1.</_>
        <_>
          6 6 2 4 3.</_></rects>
      <tilted>0</tilted></_>
    <_>
      <rects>
        <_>
          9 5 3 6 -1.</_>
        <_>
          9 7 3 2 3.</_></rects>
      <tilted>0</tilted></_>
    <_>
      <rects>
        <_>
          9 6 4 2 -1.</_>
        <_>
          9 7 4 1 2.</_></rects>
      <tilted>0</tilted></_>
    <_>
      <rects>
        <_>
          11 1 6 12 -1.</_>
        <_>
          11 1 3 6 2.</_>
        <_>
          14 7 3 6 2.</_></rects>
      <tilted>0</tilted></_>
    <_>
      <rects>
        <_>
          11 9 2 5 -1.</_>
        <_>
          12 9 1 5 2.</_></rects>
      <tilted>0</tilted></_>
    <_>
      <rects>
        <_>
          11 9 2 11 -1.</_>
        <_>
          12 9 1 11 2.</_></rects>
      <tilted>0</tilted></_>
    <_>
      <rects>
        <_>
          12 2 4 12 -1.</_>
        <_>
          12 2 2 6 2.</_>
        <_>
          14 8 2 6 2.</_></rects>
      <tilted>0</tilted></_>
    <_>
      <rects>
        <_>
          12 8 4 12 -1.</_>
        <_>
          12 8 2 6 2.</_>
        <_>
          14 14 2 6 2.</_></rects>
      <tilted>0</tilted></_>
    <_>
      <rects>
        <_>
          12 9 6 6 -1.</_>
        <_>
          14 9 2 6 3.</_></rects>
      <tilted>0</tilted></_>
    <_>
      <rects>
        <_>
          13 14 6 3 -1.</_>
        <_>
          16 14 3 3 2.</_></rects>
      <tilted>0</tilted></_>
    <_>
      <rects>
        <_>
          15 2 4 4 -1.</_>
        <_>
          15 2 2 2 2.</_>
        <_>
          17 4 2 2 2.</_></rects>
      <tilted>0</tilted></_>
    <_>
      <rects>
        <_>
          15 3 4 13 -1.</_>
        <_>
          17 3 2 13 2.</_></rects>
      <tilted>0</tilted></_>
    <_>
      <rects>
        <_>
          16 2 2 8 -1.</_>
        <_>
          16 6 2 4 2.</_></rects>
      <tilted>0</tilted></_>
    <_>
      <rects>
        <_>
          16 11 2 6 -1.</_>
        <_>
          16 14 2 3 2.</_></rects>
      <tilted>0</tilted></_>
    <_>
      <rects>
        <_>
          17 5 3 10 -1.</_>
        <_>
          18 5 1 10 3.</_></rects>
      <tilted>0</tilted></_></features></cascade>
</opencv_storage>
